tree
version=v4
num_class=1
num_tree_per_iteration=1
label_index=0
max_feature_idx=19
objective=regression
feature_names=Column_0 Column_1 Column_2 Column_3 Column_4 Column_5 Column_6 Column_7 Column_8 Column_9 Column_10 Column_11 Column_12 Column_13 Column_14 Column_15 Column_16 Column_17 Column_18 Column_19
feature_infos=[-1.7140169143676758:3] [-3:3] [-3:3] [-3:3] [-1.0245558023452759:3] [-3:0.54528123140335083] [-3:3] [-3:3] [-3:0.59189563989639282] [-3:3] [-3:3] [-3:3] [-3:3] [-3:1.8316218852996826] [-1.4973783493041992:3] [-2.9572491645812988:3] [-3:3] [-1.0245496034622192:3] [-3:3] [-3:3]
tree_sizes=1721 1723 1622 1603 1522 1410 1709 1507 1708 1707 1734 1716 1632 1644 1702 1715 1701 1575 1502 1497

Tree=0
num_leaves=16
num_cat=0
split_feature=7 15 18 6 11 11 14 14 13 13 13 13 10 17 19
split_gain=603.21 344.524 474.429 508.602 164.644 127.181 78.0781 66.4627 54.4611 43.0409 35.8154 33.3613 23.2595 18.2225 6.5948
threshold=-0.60561901330947865 0.71648943424224865 -2.7740075588226314 0.97211438417434703 0.97841200232505809 1.0552404522895815 0.066584378480911269 1.2995328307151797 0.3499217033386231 0.35919536650180822 -0.92687472701072682 0.13889522105455401 0.29644483327865606 -0.43256320059299463 -0.45847886800765986
decision_type=2 2 2 2 2 2 2 2 2 2 2 2 2 2 2
left_child=5 4 3 -3 7 8 -4 -2 10 11 -1 -7 -6 -11 -10
right_child=1 2 6 -5 12 9 -8 -9 14 13 -12 -13 -14 -15 -16
leaf_value=0.017038858279669708 5.6344651699208556e-05 -0.0033016405379901605 -0.0064308931185817963 0.049618930923636874 -0.0060693737362956445 0.0058822477666513502 -0.013341262999696539 -0.011329509142535334 0.0084922242754331481 0.0028572555571329925 0.0098746562484986408 -0.0037094235673778178 -0.012681180621715088 -0.011875181381818952 0.0041549174806306752
leaf_weight=18769 2400177 11121 71928 6438 36685 26042 76630 11591 10471 2422 109375 11782 18404 7521 39834
leaf_count=18769 2400177 11121 71928 6438 36685 26042 76630 11591 10471 2422 109375 11782 18404 7521 39834
internal_value=-1.18373e-10 -0.000629154 -0.00724142 0.016059 -0.000183583 0.00744249 -0.0100005 1.31306e-06 0.00928289 0.000551387 0.0109298 0.00287466 -0.00829184 -0.0082111 0.00507264
internal_weight=0 2.63297e+06 166117 17559 2.46686e+06 226216 148558 2.41177e+06 178449 47767 128144 37824 55089 9943 50305
internal_count=2859190 2632974 166117 17559 2466857 226216 148558 2411768 178449 47767 128144 37824 55089 9943 50305
is_linear=0
shrinkage=0.5


Tree=1
num_leaves=16
num_cat=0
split_feature=7 7 3 16 1 15 14 16 13 14 3 13 3 16 10
split_gain=622.44 623.179 212.253 137.04 103.975 90.1922 79.6366 74.9871 55.5696 39.9967 312.622 83.1796 34.5567 22.7131 14.4851
threshold=-0.04545836150646209 0.4764924049377442 1.0000000180025095e-35 -0.64864063262939442 -1.231535732746124 -0.264482632279396 -0.11139008030295371 0.32285752892494207 -1.0000000180025095e-35 -0.54321217536926258 0.97211554646492015 -0.20651603490114209 -2.221637368202209 -0.69614112377166737 0.87447941303253185
decision_type=2 2 2 2 2 2 2 2 2 2 2 2 2 2 2
left_child=4 5 3 -3 8 6 -2 -4 13 10 -6 -11 -7 -1 -10
right_child=1 2 7 -5 9 12 -8 -9 14 11 -12 -13 -14 -15 -16
leaf_value=-0.01236438362023333 -0.0010672848176582917 -0.061197367690370527 -0.0073562390826869741 -0.014524223598462813 0.0059639484909143475 -0.021698073725382037 -0.0073145592760463186 -0.002379499550403375 -0.0046933860155614054 0.0072779865479080785 0.077487146885706445 0.0028753822122590447 5.3795193883117456e-05 0.0041789076930071629 -0.017455109357768835
leaf_weight=1451 97305 1080 128864 36897 93348 1208 51877 82582 27503 90306 1023 336349 1886766 21030 1601
leaf_count=1451 97305 1080 128864 36897 93348 1208 51877 82582 27503 90306 1023 336349 1886766 21030 1601
internal_value=0 -0.000943631 -0.0070097 -0.0158685 0.00379652 -0.000200606 -0.00324404 -0.00541557 -0.00170067 0.00434201 0.00674609 0.00380875 3.9537e-05 0.00308255 -0.00541749
internal_weight=0 2.28658e+06 249423 37977 572611 2.03716e+06 149182 211446 51585 521026 94371 426655 1.88797e+06 22481 29104
internal_count=2859190 2286579 249423 37977 572611 2037156 149182 211446 51585 521026 94371 426655 1887974 22481 29104
is_linear=0
shrinkage=0.128571


Tree=2
num_leaves=15
num_cat=0
split_feature=7 1 19 11 7 18 11 2 0 11 3 9 10 4
split_gain=480.001 291.879 162.3 565.631 78.3198 55.7896 55.2932 55.1854 50.3531 75.0692 29.8419 38.3378 24.028 12.089
threshold=-0.046413218602538102 -0.60238939523696888 0.69331425428390514 -2.1053832769393916 -0.5656648278236388 -0.31851500272750849 0.90965950489044201 0.55096024274826061 0.26570467650890356 0.85098069906234752 -1.841519236564636 -0.85350328683853138 0.14494176954030993 0.10350961983203889
decision_type=2 2 2 2 2 2 2 2 2 2 2 2 2 2
left_child=4 10 5 -4 8 -3 7 -6 9 -1 -2 -12 -8 -10
right_child=1 2 3 -5 6 -7 12 -9 13 -11 11 -13 -14 -15
leaf_value=0.0056566171085436264 -0.020339706178212853 -0.0018058311339055116 0.011245584601313391 -0.0086290679976261733 0.0026201306379379078 -7.5581622389669581e-05 0.00020499928617579344 -0.0019787545406354822 0.0015074185412413789 0.0014762940706409015 -0.016243027282669315 -0.0058963842854316932 -0.0050404828959704894 -0.0029728174430747522
leaf_weight=158342 1615 206133 17933 70783 230514 1950807 19343 29297 16174 59439 3842 69727 15664 9577
leaf_count=158342 1615 206133 17933 70783 230514 1950807 19343 29297 16174 59439 3842 69727 15664 9577
internal_value=0 -0.00061926 -0.000413826 -0.00460598 0.00269501 -0.000241169 0.00159596 0.00209962 0.00402345 0.00451798 -0.00674866 -0.00644351 -0.00212783 -0.0001394
internal_weight=0 2.32084e+06 2.24566e+06 88716 538350 2.15694e+06 294818 259811 243532 217781 75184 73569 35007 25751
internal_count=2859190 2320840 2245656 88716 538350 2156940 294818 259811 243532 217781 75184 73569 35007 25751
is_linear=0
shrinkage=0.1


Tree=3
num_leaves=15
num_cat=0
split_feature=7 7 3 6 4 18 1 2 0 19 4 1 11 17
split_gain=540.154 499.628 203.863 170.184 134.396 105.583 103.454 70.2656 55.9483 51.726 51.6456 40.7711 38.471 26.1275
threshold=1.4592031240463259 0.57557934522628795 0.10102137550711633 0.57527732849121105 -0.097572498023509965 -2.1074708700180049 -0.31114873290061945 -0.31981532275676722 -0.12272595241665839 0.19075893610715869 1.5221157073974612 -1.3728303909301756 -2.1053832769393916 0.45505610108375555
decision_type=2 2 2 2 2 2 2 2 2 2 2 2 2 2
left_child=1 4 12 10 11 7 -5 -3 -6 -7 -4 -1 -2 -14
right_child=2 5 3 6 8 9 -8 -9 -10 -11 -12 -13 13 -15
leaf_value=-0.0020942863548871495 -0.010787335916594747 0.017676420631902761 -0.012070760087221358 -0.013805136315194057 0.0014024919077301231 -0.0039153522166903926 -0.0011700109596474158 -0.00061349005816084242 -2.6749923674580423e-05 -0.0073526030079308288 -0.028095023741277009 0.0017345729440515218 -0.016421092690573003 -0.026681215802480375
leaf_weight=21091 4132 2396 9715 5499 226090 94696 36336 4217 1825156 49565 1811 570460 4301 3725
leaf_count=21091 4132 2396 9715 5499 226090 94696 36336 4217 1825156 49565 1811 570460 4301 3725
internal_value=0 0.000185018 -0.00768838 -0.0053946 0.000459048 -0.00461221 -0.00284108 0.00594844 0.000130573 -0.00509929 -0.0146257 0.00159734 -0.0177204 -0.0212364
internal_weight=0 2.79367e+06 65519 53361 2.6428e+06 150874 41835 6613 2.05125e+06 144261 11526 591551 12158 8026
internal_count=2859190 2793671 65519 53361 2642797 150874 41835 6613 2051246 144261 11526 591551 12158 8026
is_linear=0
shrinkage=0.0857143


Tree=4
num_leaves=14
num_cat=0
split_feature=7 6 3 11 3 9 13 17 9 13 19 0 10
split_gain=328.126 220.797 204.448 101.845 105.723 60.6093 50.0044 45.0109 44.3857 38.7416 35.3696 34.7241 31.0291
threshold=-0.064842637628316865 -0.34302476048469538 0.8542635738849641 -1.3240331411361692 0.57529067993164074 1.1684334874153139 0.38768969476222997 0.25180219113826757 -0.27612991631031031 0.52940461039543163 0.090802486985921874 -0.1839678958058357 -0.10395677015185355
decision_type=2 2 2 2 2 2 2 2 2 2 2 2 2
left_child=2 7 6 5 -5 -3 12 8 -2 -4 -8 -9 -1
right_child=1 3 9 4 -6 -7 10 11 -10 -11 -12 -13 -14
leaf_value=0.0050598073181997959 -0.020707252562301198 0.0013232380571223535 0.035643243023189768 -0.00027747369630348241 -0.0031071899476365255 0.010711660614218414 0.0019783363317700713 -0.0088815140081540313 -0.004571956881423726 0.006817533239725948 -0.0027108256738774101 -0.019919448325051017 0.0025662435450945383
leaf_weight=147432 3363 28225 4055 1954913 269606 22170 93672 12652 37812 1130 41628 9004 232837
leaf_count=147432 3363 28225 4055 1954913 269606 22170 93672 12652 37812 1130 41628 9004 232837
internal_value=0 -0.000702204 0.00301526 -0.000485583 -0.000620729 0.00546672 0.00274771 -0.00853473 -0.00590608 0.0294902 0.000530664 -0.0135017 0.00353477
internal_weight=0 2.33774e+06 520754 2.27491e+06 2.22452e+06 50395 515569 62831 41175 5185 135300 21656 380269
internal_count=2858499 2337745 520754 2274914 2224519 50395 515569 62831 41175 5185 135300 21656 380269
is_linear=0
shrinkage=0.133929


Tree=5
num_leaves=13
num_cat=0
split_feature=1 18 14 15 17 13 15 10 13 17 5 14
split_gain=109.293 86.3282 58.8879 65.2938 54.5955 62.0397 58.4017 47.9624 30.8243 20.7017 8.45538 6.56284
threshold=-1.0294792056083677 0.47862954437732702 -0.65055656433105458 -0.95842820405960072 1.2016846537590029 0.6392965316772462 0.92555695772171032 0.8011232614517213 -0.61642295122146595 -0.52676060795783985 0.35931937396526342 0.14950017631053927
decision_type=2 2 2 2 2 2 2 2 2 2 2 2
left_child=1 -1 3 9 5 -4 -6 8 -3 -2 -5 -9
right_child=2 7 4 10 6 -7 -8 11 -10 -11 -12 -13
leaf_value=-0.033255066182455321 0.046795153660465667 0.0029068591422541307 0.00031200417112429784 0.0053931853988216415 -0.00056245145989818003 -0.0068370595451663924 -0.012442442761187614 -0.017412465596038141 -0.0055544525881910285 0.012466983532630926 -0.00064077349573953501 -0.033376163640017005
leaf_weight=3938 1718 18761 2585045 53419 35166 43384 25026 4535 75703 1101 9317 1386
leaf_count=3938 1718 18761 2585045 53419 35166 43384 25026 4535 75703 1101 9317 1386
internal_value=0 -0.00598153 0.000201176 0.00575374 6.54423e-05 0.000193647 -0.00551737 -0.00490228 -0.00386407 0.0337204 0.00448213 -0.0213076
internal_weight=0 104323 2.75418e+06 65555 2.68862e+06 2.62843e+06 60192 100385 94464 2819 62736 5921
internal_count=2858499 104323 2754176 65555 2688621 2628429 60192 100385 94464 2819 62736 5921
is_linear=0
shrinkage=0.1875


Tree=6
num_leaves=16
num_cat=0
split_feature=14 7 7 8 11 10 7 15 0 2 3 12 3 5 2
split_gain=106.256 468.296 152.716 143.218 120.547 80.521 50.0652 34.3077 31.7169 61.4363 26.334 23.4679 20.1389 16.2368 11.7362
threshold=1.6190789341926577 0.24457367509603503 -0.35443481802940363 0.24671345949172976 0.7484082579612733 1.0532971024513247 0.056919606402516372 -0.58535879850387562 -0.1839678958058357 -1.1828997135162351 -0.793881595134735 -0.14769373089075086 0.49859091639518743 0.26453331112861639 1.0261024236679079
decision_type=2 2 2 2 2 2 2 2 2 2 2 2 2 2 2
left_child=1 3 7 5 10 -1 -5 11 12 -10 -3 -2 -4 -9 -6
right_child=2 4 8 6 14 -7 -8 13 9 -11 -12 -13 -14 -15 -16
leaf_value=0.00018104353407848059 -0.0090288977386629651 -0.0055203220183590784 -0.0052236450799246362 0.0017682194529204821 -0.0055443770346081424 -0.0030084027580220708 -0.00026805993302865148 -0.0002718498857288285 0.0050616502355650007 -0.0094834723692094891 -0.0017048818803678438 -6.0471298608953818e-05 -0.00074376029151937851 0.0040052904831252671 -0.010550644100442456
leaf_weight=2080243 1732 7328 13663 316067 29104 31378 55133 4790 1233 11192 283824 3543 5739 11410 2120
leaf_count=2080243 1732 7328 13663 316067 29104 31378 55133 4790 1233 11192 283824 3543 5739 11410 2120
internal_value=0 4.15946e-05 -0.00277529 0.000332687 -0.00219932 0.000133501 0.00146494 0.00128561 -0.00552517 -0.00801493 -0.00180199 -0.00306442 -0.00391463 0.00272134 -0.00589429
internal_weight=0 2.8052e+06 53302 2.48282e+06 322376 2.11162e+06 371200 21475 31827 12425 291152 5275 19402 16200 31224
internal_count=2858499 2805197 53302 2482821 322376 2111621 371200 21475 31827 12425 291152 5275 19402 16200 31224
is_linear=0
shrinkage=0.0625


Tree=7
num_leaves=14
num_cat=0
split_feature=7 1 3 7 3 2 16 2 15 1 2 4 2
split_gain=405.96 191.31 180.6 150.726 526.693 123.872 94.2743 71.3376 37.2883 57.3146 41.4063 18.151 17.9454
threshold=0.76041048765182506 1.1937211751937868 0.41787204146385198 -0.064842637628316865 1.0240315794944765 -0.65148687362670887 -0.77305257320404042 1.4137934446334841 -0.41664174199104304 1.5406259894371035 -0.13559793680906293 -0.068012636154890047 -0.03559767268598079
decision_type=2 2 2 2 2 2 2 2 2 2 2 2 2
left_child=3 7 11 4 6 -4 -1 12 10 -10 -5 -3 -2
right_child=1 2 5 8 -6 -7 -8 -9 9 -11 -12 -13 -14
leaf_value=-0.0034506092015569494 -0.0156848123801114 -0.004816836428762147 0.021592271688333775 -0.0024789904350454826 0.16890027615179284 -0.019135581528802903 0.0056388847361620803 -0.071755720152092778 -4.947665363058958e-05 0.015612928415938174 -0.015293441471144311 -0.022015849091843231 -0.025743965346666502
leaf_weight=85146 102085 5499 23539 114931 1216 5790 434392 1512 2023945 14708 18351 14425 12960
leaf_count=85146 102085 5499 23539 114931 1216 5790 434392 1512 2023945 14708 18351 14425 12960
internal_value=0 -0.0120314 0.00100804 0.000713969 0.00453393 0.0135093 0.00414682 -0.0175521 -0.000201349 6.29077e-05 -0.00425273 -0.0173317 -0.0168289
internal_weight=0 165810 49253 2.69269e+06 520754 29329 519538 116557 2.17194e+06 2.03865e+06 133282 19924 115045
internal_count=2858499 165810 49253 2692689 520754 29329 519538 116557 2171935 2038653 133282 19924 115045
is_linear=0
shrinkage=0.25


Tree=8
num_leaves=16
num_cat=0
split_feature=7 7 6 11 13 3 0 13 1 1 14 3 14 12 16
split_gain=116.817 177.085 272.997 97.2197 57.0873 60.4456 59.9314 47.5988 45.8208 44.5451 43.9476 37.4687 22.9782 18.538 14.9455
threshold=-0.38455551862716669 1.6957090497016909 0.85428994894027721 -0.31985495984554285 -1.1506092548370359 0.70232874155044567 -0.10704057291150092 0.37786990404129034 -0.60238939523696888 -0.46180868148803705 2.0865031480789189 -1.2256921529769895 -0.39343883097171778 -0.30879452824592585 -1.0000000180025095e-35
decision_type=2 2 2 2 2 2 2 2 2 2 2 2 2 2 2
left_child=4 9 10 -4 6 8 14 -7 -6 11 -3 -2 -11 -8 -1
right_child=1 2 3 -5 5 7 13 -9 -10 12 -12 -13 -14 -15 -16
leaf_value=0.0097251009464480107 -0.015352861414449394 -0.019950747736313546 0.010040227767494329 -0.016373129305169196 -0.00070445563723718543 0.054545936524567559 -0.0093435356882170043 0.0073968140923867838 0.0038722884533485763 0.0017278117081087558 -0.039098138408173319 -0.0024344069703064186 -0.00016036833079373489 0.0061607856317707939 0.022563504721924248
leaf_weight=4429 7545 21198 17027 5998 108263 1253 3427 1614 194611 227935 4835 153660 2088536 8552 10268
leaf_count=4429 7545 21198 17027 5998 108263 1253 3427 1614 194611 227935 4835 153660 2088536 8552 10268
internal_value=0 -0.000385042 -0.0110094 0.00312078 0.00317585 0.00248086 0.0111079 0.0283144 0.00223337 -0.00017432 -0.0235412 -0.00304458 2.50385e-05 0.00165071 0.0187554
internal_weight=0 2.52673e+06 49058 23025 332417 305741 26676 2867 302874 2.47768e+06 26033 161205 2.31647e+06 11979 14697
internal_count=2859151 2526734 49058 23025 332417 305741 26676 2867 302874 2477676 26033 161205 2316471 11979 14697
is_linear=0
shrinkage=0.178571


Tree=9
num_leaves=16
num_cat=0
split_feature=0 13 14 16 19 19 2 12 1 19 16 13 6 14 5
split_gain=43.5567 46.5099 59.0275 94.9799 42.7213 31.4181 30.0841 30.023 55.7942 22.2373 17.8881 16.6138 12.5854 12.5003 9.88454
threshold=-0.29293605685234064 0.48182132840156561 0.4516600370407105 -0.80056136846542347 1.5559186339378359 -0.028847809880971905 0.92436364293098461 -1.4000979065895078 -1.1218063235282896 -0.88031533360481251 0.57963463664054882 0.43670532107353216 -1.0975650548934934 0.31032715737819677 -0.16234760731458661
decision_type=2 2 2 2 2 2 2 2 2 2 2 2 2 2 2
left_child=7 2 4 -4 -2 13 -7 9 11 14 -10 -9 -11 -3 -1
right_child=1 5 3 -5 -6 6 -8 8 10 12 -12 -13 -14 -15 -16
leaf_value=7.6142846908823484e-05 1.0741466957945102e-06 -0.00024023047740826231 -0.050193647280931467 -0.003848708221143248 0.0084899720233575279 -0.0054883825123482151 -0.019429934896010526 -0.0048421103296099419 0.0013048224342758 -0.014836574872214854 0.0046804498628363767 -0.017753247123929818 0.0036581757232699136 -0.016862230729403939 0.011704074687236703
leaf_weight=2856 2216688 49563 1437 88058 19069 48709 5571 21180 317902 1839 59821 3841 3120 1491 18006
leaf_count=2856 2216688 49563 1437 88058 19069 48709 5571 21180 317902 1839 59821 3841 3120 1491 18006
internal_value=0 -0.000272389 -0.000105738 -0.00460283 7.38762e-05 -0.00394274 -0.00693572 0.0016801 0.00129898 0.00759006 0.00184179 -0.0068598 -0.00302039 -0.000743154 0.010155
internal_weight=0 2.43059e+06 2.32525e+06 89495 2.23576e+06 105334 54280 428565 402744 25821 377723 25021 4959 51054 20862
internal_count=2859151 2430586 2325252 89495 2235757 105334 54280 428565 402744 25821 377723 25021 4959 51054 20862
is_linear=0
shrinkage=0.178571


Tree=10
num_leaves=16
num_cat=0
split_feature=7 7 6 19 12 16 3 12 6 3 2 11 10 0 0
split_gain=342.267 307.576 124.315 162.145 129.19 48.5927 130.904 595.153 65.9568 40.7293 38.6594 27.6497 23.4671 19.9565 11.9486
threshold=-0.064842637628316865 0.39097206294536596 0.70232200622558605 0.86097723245620739 0.27134019136428839 -0.74683862924575795 0.76168218255043041 0.24042075127363208 -0.5082029104232787 -0.793881595134735 -1.1014949679374693 0.53634867072105419 0.91969352960586559 -0.26933418214321131 0.094681106507778182
decision_type=2 2 2 2 2 2 2 2 2 2 2 2 2 2 2
left_child=5 9 4 -4 -3 6 8 -8 -1 14 -11 13 -13 -7 -2
right_child=1 2 3 -5 -6 11 7 -9 -10 10 -12 12 -14 -15 -16
leaf_value=-0.0038828840968949865 -0.0014457396778593738 -0.001360965500645844 -0.0011562162470154962 0.0030579321808134677 -0.0038813605375822516 0.0018006133260308425 -0.0038317441345408227 0.020456943282929557 3.3712371351662696e-05 -0.0014598442034852027 4.9663686548050316e-06 0.00079512607637979046 -0.0021552407861932408 0.0010831397378675549 -0.0041797065098300341
leaf_weight=8227 14624 93194 113398 18409 57239 124362 4564 2832 79537 31772 2006454 143924 4802 152217 3596
leaf_count=8227 14624 93194 113398 18409 57239 124362 4564 2832 79537 31772 2006454 143924 4802 152217 3596
internal_value=0 -0.000212527 -0.00150236 -0.000566061 -0.00232135 0.000968902 0.000115327 0.00544046 -0.000331056 -3.54001e-05 -1.7765e-05 0.0011594 0.000698465 0.0014065 -0.00199676
internal_weight=0 2.33869e+06 282240 131807 150433 520465 95160 7396 87764 2.05645e+06 2.03823e+06 425305 148726 276579 18220
internal_count=2859151 2338686 282240 131807 150433 520465 95160 7396 87764 2056446 2038226 425305 148726 276579 18220
is_linear=0
shrinkage=0.0416667


Tree=11
num_leaves=16
num_cat=0
split_feature=15 2 10 18 4 13 14 16 11 1 19 14 1 4 19
split_gain=89.692 125.683 79.7239 82.3228 72.9197 107.228 56.7432 42.108 32.0338 586.999 29.4646 20.5422 17.6994 15.5855 9.45463
threshold=1.0480127334594729 -0.46188071370124811 1.0532971024513247 0.74385690689086925 0.66394054889678966 -1.9771333932876585 -0.49749919772148127 -0.037409747019410126 0.2835459709167481 2.1653834581375127 -0.36085866391658777 -0.049118213355541222 -1.3728303909301756 -0.70108067989349354 0.35086980462074285
decision_type=2 2 2 2 2 2 2 2 2 2 2 2 2 2 2
left_child=2 8 6 13 12 -6 7 -1 9 -2 -8 -5 -3 -4 -10
right_child=1 4 3 11 5 -7 10 -9 14 -11 -12 -13 -14 -15 -16
leaf_value=0.00057834151385408755 -0.0021964230529426367 -0.0056428433500792944 -0.0030742503100017332 -0.003448430643821956 -0.012489409363741665 -0.0034630386311781938 0.00052834951404717614 0.002563536677443334 -0.0052842403963752832 0.010353548580828079 -3.1771811945177499e-05 -0.0089129985200346682 -0.0012920226121082689 -0.00056249125803033715 -0.00037756638872831323
leaf_weight=210464 38774 2521 7740 3079 3988 19847 263028 30733 2901 12260 2182930 4525 41995 32708 1658
leaf_count=210464 38774 2521 7740 3079 3988 19847 263028 30733 2901 12260 2182930 4525 41995 32708 1658
internal_value=0 -0.00131074 6.44297e-05 -0.00195396 -0.00274718 -0.00498379 0.000100616 0.000832329 0.000450863 0.000813583 2.83591e-05 -0.00673317 -0.00154403 -0.00104931 -0.00355464
internal_weight=0 123944 2.73521e+06 48052 68351 23835 2.68716e+06 241197 55593 51034 2.44596e+06 7604 44516 40448 4559
internal_count=2859151 123944 2735207 48052 68351 23835 2687155 241197 55593 51034 2445958 7604 44516 40448 4559
is_linear=0
shrinkage=0.05


Tree=12
num_leaves=15
num_cat=0
split_feature=7 0 11 1 14 2 2 16 13 2 18 9 14 13
split_gain=156.949 87.0713 56.1392 49.5234 124.06 49.7604 41.0916 38.1458 60.7851 46.5474 30.9877 27.2081 23.4024 16.0782
threshold=0.11513855308294298 -0.12272595241665839 0.61359915137290966 0.96591103076934826 0.89405539631843578 -0.43369193375110621 1.0261024236679079 -0.40393517911434168 0.29076527059078222 0.28661200404167181 -0.17623499780893323 -0.55831184983253468 -0.61170107126235951 0.46954306960105902
decision_type=2 2 2 2 2 2 2 2 2 2 2 2 2 2
left_child=1 7 3 4 -2 -5 12 9 -9 -1 -4 -12 -3 -8
right_child=2 6 10 5 -6 -7 13 8 -10 -11 11 -13 -14 -15
leaf_value=0.0030300565695780979 -0.0038169713811394852 0.0091385107156081637 -0.042671198127134748 0.0077132266938273152 -0.027210658201927196 -0.0045165891991980744 -0.0061848754359979767 0.0087604286042648333 0.00098006695087134253 -0.0069304280998193218 -0.024505789435130335 -0.0084644796631469718 8.309656621799364e-05 -0.024218888402466037
leaf_weight=163915 254001 19066 2161 45627 15957 42363 41848 173622 108156 38220 8433 44976 1897508 3617
leaf_count=163915 254001 19066 2161 45627 15957 42363 41848 173622 108156 38220 8433 44976 1897508 3617
internal_value=0 0.000754539 -0.00466202 -0.0034765 -0.00520452 0.00181054 -6.74167e-06 0.00384383 0.00577862 0.00114035 -0.0122753 -0.0110214 0.00017385 -0.00764786
internal_weight=0 2.44595e+06 413518 357948 269958 87990 1.96204e+06 483913 281778 202135 55570 53409 1.91657e+06 45465
internal_count=2859470 2445952 413518 357948 269958 87990 1962039 483913 281778 202135 55570 53409 1916574 45465
is_linear=0
shrinkage=0.257143


Tree=13
num_leaves=15
num_cat=0
split_feature=7 11 16 1 3 6 15 13 19 19 16 3 9 17
split_gain=453.329 170.257 131.932 83.6159 63.048 210.873 55.4235 63.2533 56.675 48.1567 37.545 31.8901 25.1055 23.7729
threshold=0.91881847381591808 -1.173874497413635 1.0000000180025095e-35 -0.9557456076145171 -0.64153090119361866 0.92782723903656017 -0.10028523951768874 0.3499217033386231 -0.94080841541290272 -0.057403441518545144 -0.85774672031402577 0.73214879631996166 -0.13965595513582227 -0.25710657238960261
decision_type=2 2 2 2 2 2 2 2 2 2 2 2 2 2
left_child=2 4 3 12 -2 -6 7 -4 -8 10 -3 -11 -1 -5
right_child=1 9 6 13 5 -7 8 -9 -10 11 -12 -13 -14 -15
leaf_value=-0.0019287084101621299 -0.0049787535089694237 -0.0063771743046228176 0.0022647676772230836 0.00035211000455986848 -0.0020422690271780608 0.0044218621282593445 0.0027213109556181335 -4.7328559288755931e-05 0.00030256512609607095 -0.0056303701017564678 -0.0020321299293460065 -0.0033469458314700239 0.00028543546063169209 -1.5290762731178022e-05
leaf_weight=52126 4759 4121 85338 388110 26275 14316 19540 28917 203879 23395 37071 23023 11278 1937322
leaf_count=52126 4759 4121 85338 388110 26275 14316 19540 28917 203879 23395 37071 23023 11278 1937322
internal_value=0 -0.00244661 0.000116154 3.97821e-06 -0.000309837 0.00023228 0.000909094 0.00167772 0.000515065 -0.00355023 -0.00247203 -0.00450242 -0.00153149 4.59355e-05
internal_weight=0 132960 2.72651e+06 2.38884e+06 45350 40591 337674 114255 223419 87610 41192 46418 63404 2.32543e+06
internal_count=2859470 132960 2726510 2388836 45350 40591 337674 114255 223419 87610 41192 46418 63404 2325432
is_linear=0
shrinkage=0.0428571


Tree=14
num_leaves=16
num_cat=0
split_feature=7 1 2 19 9 16 17 17 11 13 14 18 4 9 12
split_gain=88.6883 108.674 146.164 131.086 188.494 90.1595 41.3638 26.9711 25.4858 34.6056 51.4775 26.5296 14.6024 21.357 5.23293
threshold=-0.48910215497016901 1.7991529703140261 -0.43369193375110621 0.15540731698274615 -1.0426397919654844 -0.88893550634384144 -0.35269324481487269 1.2016846537590029 0.97841200232505809 -1.0000000180025095e-35 -1.0000000180025095e-35 -0.17623499780893323 0.66394054889678966 -0.16113384813070294 -0.14769373089075086
decision_type=2 2 2 2 2 2 2 2 2 2 2 2 2 2 2
left_child=8 3 6 5 -5 -2 -3 -4 9 11 -11 -1 13 -10 -14
right_child=1 2 7 4 -6 -7 -8 -9 12 10 -12 -13 14 -15 -16
leaf_value=-3.0344230916317625e-05 -0.010555824493318863 0 0.0056431747672214105 0.073280727296053505 -0.0085904398739560951 0.00019118991431246182 0.040901404681015371 -0.016381784508621058 -0.0060153686648574487 0.0070990419194066623 -0.0060037402914368673 0.014973747995489433 -0.016110552105976905 0.0070193529050389973 -0.0036100373664290715
leaf_weight=12840 72530 2571 18058 2556 226535 2236121 15403 6917 18175 113936 35241 55968 5780 29711 7128
leaf_count=12840 72530 2571 18058 2556 226535 2236121 15403 6917 18175 113936 35241 55968 5780 29711 7128
internal_value=0 -0.000571843 0.0143908 -0.000825663 -0.00767044 -0.000145795 0.0350216 -0.000396731 0.00506061 0.00657577 0.00399364 0.0121521 -0.000347545 0.00204074 -0.00932378
internal_weight=0 2.58069e+06 42949 2.53774e+06 229091 2.30865e+06 17974 24975 278779 217985 149177 68808 60794 47886 12908
internal_count=2859470 2580691 42949 2537742 229091 2308651 17974 24975 278779 217985 149177 68808 60794 47886 12908
is_linear=0
shrinkage=0.3


Tree=15
num_leaves=16
num_cat=0
split_feature=7 12 9 13 14 11 15 2 16 13 11 9 3 16 13
split_gain=74.2834 63.8825 103.562 330.686 82.4423 219.647 102.069 33.9413 34.8096 53.7106 23.2425 23.2344 79.4928 18.012 12.0521
threshold=-0.12010928615927695 0.1189108043909073 -0.92426916956901539 -0.15771822631359098 -0.25147870182991022 -2.7321937084197994 -0.73040306568145741 0.92436364293098461 -0.32396587729454035 0.23654112219810489 1.6402677297592165 -0.092885695397853837 0.8542635738849641 -0.52839985489845265 -0.40764732658863062
decision_type=2 2 2 2 2 2 2 2 2 2 2 2 2 2 2
left_child=7 2 3 -2 6 -6 -3 11 13 -10 -4 12 -1 -9 -13
right_child=1 4 10 -5 5 -7 -8 8 9 -11 -12 14 -14 -15 -16
leaf_value=0.0028820333668559224 -0.16085479464626803 0.047135555269233423 6.554251279606145e-05 -0.0083197502043134176 0.038594555947453937 -0.011648909262535877 -0.00045967338946196622 -0.022536779717161223 0.0053006202847635771 -0.0090131524211456305 -0.019393523701730263 0.017070240902735487 0.047444832258505931 -0.0032378915506485841 0.007531201939083047
leaf_weight=263727 1487 4211 2075433 9348 8223 159542 108319 8998 82124 33070 5539 14711 3658 8833 72247
leaf_count=263727 1487 4211 2075433 9348 8223 159542 108319 8998 82124 33070 5539 14711 3658 8833 72247
internal_value=0 -0.000709197 -0.000138567 -0.0293922 -0.00496238 -0.00917729 0.00130806 0.00335723 -0.000718986 0.00117839 1.30268e-05 0.00489173 0.00349729 -0.0130608 0.00916221
internal_weight=0 2.3721e+06 2.09181e+06 10835 280295 167765 112530 487368 133025 115194 2.08097e+06 354343 267385 17831 86958
internal_count=2859470 2372102 2091807 10835 280295 167765 112530 487368 133025 115194 2080972 354343 267385 17831 86958
is_linear=0
shrinkage=0.3


Tree=16
num_leaves=16
num_cat=0
split_feature=7 16 14 11 3 17 3 3 19 18 12 18 3 17 15
split_gain=63.2663 55.4343 55.4336 62.5645 103.46 28.1106 34.3452 18.4622 57.5703 25.884 17.8723 23.3158 15.2918 11.494 8.1499
threshold=0.24457367509603503 0.039315382018685348 1.6190789341926577 -1.7597858309745786 0.65037864446640026 -0.097565699368715272 -1.2256921529769895 -0.50821614265441883 -1.7375738620758054 0.028289927169680599 0.97402128577232372 -2.7740075588226314 -1.841519236564636 0.97591072320938121 -0.56724050641059864
decision_type=2 2 2 2 2 2 2 2 2 2 2 2 2 2 2
left_child=1 7 3 4 -2 14 -7 9 -9 -1 11 -4 -5 -12 -3
right_child=2 5 10 12 -6 6 -8 8 -10 -11 13 -13 -14 -15 -16
leaf_value=-0.025078536434031712 -0.0037694980677148277 0.017392891045770225 0.011155514250713818 -0.036444594138355428 0.034296716477163793 -0.0036940286200853002 0.0056144416254962437 -0.032602737092439139 0.00040221163062058519 -0.0028187282623854666 -0.012909170426834539 -0.017271239366805122 -0.0037597276994382777 -0.03466390442258882 0.0079765990982310509
leaf_weight=5012 16197 9536 3360 1305 10588 54483 102646 4766 2167949 82897 3653 10718 294292 6644 85064
leaf_count=5012 16197 9536 3360 1305 10588 54483 102646 4766 2167949 82897 3653 10718 294292 6644 85064
internal_value=0 0.000626962 -0.00369577 -0.00264729 0.0112219 0.00485013 0.00237727 0.000156033 0.000329123 -0.0041049 -0.0175013 -0.0103801 -0.0039091 -0.0270918 0.00894165
internal_weight=0 2.51235e+06 346757 322382 26785 251729 157129 2.26062e+06 2.17272e+06 87909 24375 14078 295597 10297 94600
internal_count=2859110 2512353 346757 322382 26785 251729 157129 2260624 2172715 87909 24375 14078 295597 10297 94600
is_linear=0
shrinkage=0.3


Tree=17
num_leaves=15
num_cat=0
split_feature=14 19 9 9 16 10 2 19 0 0 19 13 18 18
split_gain=28.783 278.806 319.188 42.9934 38.5259 26.5874 58.1801 42.3038 22.615 9.69432 9.47146 50.3546 3.90438 0.603868
threshold=-0.48630203306674952 0.95851522684097301 -0.18334046006202695 -1.0426397919654844 -0.80056136846542347 0.52164238691329967 2.241682887077332 -0.31348031759262079 -0.1939657777547836 0.027927145361900333 -0.16633941233158109 0.18460330367088321 0.080984365195035948 -0.31851500272750849
decision_type=2 2 2 2 2 2 2 2 2 2 2 2 2 2
left_child=1 4 -3 10 8 7 -7 -5 -1 -6 11 -2 -12 -4
right_child=3 2 13 5 9 6 -8 -9 -10 -11 12 -13 -14 -15
leaf_value=0.00034240796218095143 -0.078199380952511902 0.14830229083462018 -0.0049897378835715468 0.0039337789579830989 0.0050237601965226761 -0.0028152677729208929 -0.041357118666502442 -0.00031440644179256828 -0.0096164608451598521 -0.00083972471136221916 0 -0.0078172185531435751 -0.020342532604432847 0.004005114857343511
leaf_weight=50992 1438 2525 1268 233957 156202 192725 3598 2145132 34037 29794 1613 2670 1739 1420
leaf_count=50992 1438 2525 1268 233957 156202 192725 3598 2145132 34037 29794 1613 2670 1739 1420
internal_value=0 0.00298174 0.0717099 -0.000240019 0.00165427 -0.000173558 -0.00352926 0.000102725 -0.00362647 0.00407645 -0.0229833 -0.0328195 -0.0104812 0
internal_weight=0 276238 5213 2.58287e+06 271025 2.57541e+06 196323 2.37909e+06 85029 185996 7460 4108 3352 2688
internal_count=2859110 276238 5213 2582872 271025 2575412 196323 2379089 85029 185996 7460 4108 3352 2688
is_linear=0
shrinkage=0.3


Tree=18
num_leaves=14
num_cat=0
split_feature=1 15 7 7 11 9 18 9 2 0 7 15 13
split_gain=140.057 88.6846 57.6527 73.657 71.1016 57.6942 47.5594 20.3856 17.5842 16.0931 11.5409 27.6556 23.5858
threshold=-1.9643439650535581 -0.78298312425613392 0.43228675425052648 1.1298436522483828 -1.7597858309745786 0.12320327386260034 1.0000000180025095e-35 -0.051651775836944573 -0.069024167954921709 -0.23604923486709592 0.39097206294536596 1.1999151706695559 -0.92687472701072682
decision_type=2 2 2 2 2 2 2 2 2 2 2 2 2
left_child=1 9 5 7 -5 8 -7 -4 -2 -1 12 -12 -3
right_child=2 10 3 4 -6 6 -8 -9 -10 -11 11 -13 -14
leaf_value=-0.045565713513134994 0.0021389810040053493 0.010321546939130529 -0.0029096074125627494 0.0033316129303441328 -0.015175851495657949 0.0013032113516495583 0.0121528387383485 0.003877392369958843 -5.6361837188874145e-05 -0.097267952748652409 -0.0053493371501258796 -0.069947374538504317 -0.020878184737551157
leaf_weight=1031 391068 2776 97295 24851 73790 77520 69070 67413 2040874 1611 1314 1183 9314
leaf_count=1031 391068 2776 97295 24851 73790 77520 69070 67413 2040874 1611 1314 1183 9314
internal_value=0 -0.0269174 0.000212762 -0.00401458 -0.010498 0.000645088 0.00642555 -0.000122663 0.000296043 -0.0776597 -0.0176242 -0.0365546 -0.0135903
internal_weight=0 17229 2.84188e+06 263349 98641 2.57853e+06 146590 164708 2.43194e+06 2642 14587 2497 12090
internal_count=2859110 17229 2841881 263349 98641 2578532 146590 164708 2431942 2642 14587 2497 12090
is_linear=0
shrinkage=0.3


Tree=19
num_leaves=14
num_cat=0
split_feature=7 10 3 6 19 19 7 15 3 12 9 12 1
split_gain=69.9377 80.0215 50.5779 24.4664 116.157 29.3216 23.2041 21.8603 46.6761 82.4128 66.3612 14.0057 8.5277
threshold=1.1298436522483828 -0.10395677015185355 -2.221637368202209 1.2713077664375307 0.49957196414470678 0.15540731698274615 -1.2332460880279539 0.19884286820888522 0.67599293589591991 1.0582168102264407 0.67560040950775158 -0.30879452824592585 0.19654330611228946
decision_type=2 2 2 2 2 2 2 2 2 2 2 2 2
left_child=1 3 11 5 -5 -1 -4 12 9 -9 -10 -3 -2
right_child=7 2 6 4 -6 -7 -8 8 10 -11 -12 -13 -14
leaf_value=0.0067232650099181218 -0.018926758665238724 -0.029983270686687758 0.0090341436978931631 -0.0055669892905456488 0.094567306782386687 0.00080997603996603364 -0.00025864158323192721 -0.0075332794933938079 -0.0082587475131265277 -0.040011358437588157 0.014371151946606216 -0.01047088777633748 -0.052873025482461533
leaf_weight=194682 1958 5445 24424 3232 1522 124262 2396307 34069 36535 8925 17118 9416 1215
leaf_count=194682 1958 5445 24424 3232 1522 124262 2396307 34069 36535 8925 17118 9416 1215
internal_value=0 0.000316386 -0.000272003 0.00474821 0.0261756 0.00442412 -0.000164262 -0.00776678 -0.00694259 -0.0143102 -0.00101072 -0.0177211 -0.0323981
internal_weight=0 2.75929e+06 2.43559e+06 323698 4754 318944 2.42073e+06 99820 96647 42994 53653 14861 3173
internal_count=2859110 2759290 2435592 323698 4754 318944 2420731 99820 96647 42994 53653 14861 3173
is_linear=0
shrinkage=0.3


end of trees

feature_importances:
Column_7=27
Column_3=24
Column_13=24
Column_14=19
Column_19=19
Column_2=18
Column_11=18
Column_1=17
Column_16=17
Column_9=14
Column_15=13
Column_0=12
Column_18=12
Column_10=10
Column_12=10
Column_17=10
Column_6=9
Column_4=7
Column_5=3
Column_8=1

parameters:
[boosting: dart]
[objective: regression]
[metric: huber]
[tree_learner: serial]
[device_type: cpu]
[data_sample_strategy: bagging]
[data: ]
[valid: ]
[num_iterations: 20]
[learning_rate: 0.3]
[num_leaves: 16]
[num_threads: 22]
[seed: 0]
[deterministic: 0]
[force_col_wise: 0]
[force_row_wise: 0]
[histogram_pool_size: -1]
[max_depth: 4]
[min_data_in_leaf: 1000]
[min_sum_hessian_in_leaf: 0.001]
[bagging_fraction: 0.9]
[pos_bagging_fraction: 1]
[neg_bagging_fraction: 1]
[bagging_freq: 4]
[bagging_seed: 3]
[feature_fraction: 0.8]
[feature_fraction_bynode: 1]
[feature_fraction_seed: 2]
[extra_trees: 1]
[extra_seed: 6]
[early_stopping_round: 0]
[early_stopping_min_delta: 0]
[first_metric_only: 0]
[max_delta_step: 0]
[lambda_l1: 5]
[lambda_l2: 0]
[linear_lambda: 0]
[min_gain_to_split: 0]
[drop_rate: 0.45]
[max_drop: 30]
[skip_drop: 0.65]
[xgboost_dart_mode: 0]
[uniform_drop: 0]
[drop_seed: 4]
[top_rate: 0.2]
[other_rate: 0.1]
[min_data_per_group: 100]
[max_cat_threshold: 32]
[cat_l2: 10]
[cat_smooth: 10]
[max_cat_to_onehot: 4]
[top_k: 20]
[monotone_constraints: ]
[monotone_constraints_method: basic]
[monotone_penalty: 0]
[feature_contri: ]
[forcedsplits_filename: ]
[refit_decay_rate: 0.9]
[cegb_tradeoff: 1]
[cegb_penalty_split: 0]
[cegb_penalty_feature_lazy: ]
[cegb_penalty_feature_coupled: ]
[path_smooth: 0]
[interaction_constraints: ]
[verbosity: -1]
[saved_feature_importance_type: 0]
[use_quantized_grad: 0]
[num_grad_quant_bins: 4]
[quant_train_renew_leaf: 0]
[stochastic_rounding: 1]
[linear_tree: 0]
[max_bin: 65]
[max_bin_by_feature: ]
[min_data_in_bin: 3]
[bin_construct_sample_cnt: 200000]
[data_random_seed: 1]
[is_enable_sparse: 1]
[enable_bundle: 1]
[use_missing: 1]
[zero_as_missing: 0]
[feature_pre_filter: 1]
[pre_partition: 0]
[two_round: 0]
[header: 0]
[label_column: ]
[weight_column: ]
[group_column: ]
[ignore_column: ]
[categorical_feature: ]
[forcedbins_filename: ]
[precise_float_parser: 0]
[parser_config_file: ]
[objective_seed: 5]
[num_class: 1]
[is_unbalance: 0]
[scale_pos_weight: 1]
[sigmoid: 1]
[boost_from_average: 1]
[reg_sqrt: 0]
[alpha: 0.9]
[fair_c: 1]
[poisson_max_delta_step: 0.7]
[tweedie_variance_power: 1.5]
[lambdarank_truncation_level: 30]
[lambdarank_norm: 1]
[label_gain: ]
[lambdarank_position_bias_regularization: 0]
[eval_at: ]
[multi_error_top_k: 1]
[auc_mu_weights: ]
[num_machines: 1]
[local_listen_port: 12400]
[time_out: 120]
[machine_list_filename: ]
[machines: ]
[gpu_platform_id: -1]
[gpu_device_id: -1]
[gpu_use_dp: 0]
[num_gpu: 1]

end of parameters

pandas_categorical:null
